net
{
	name = "cond_exp1txtwekafiltersunsupervisedattributeReplaceMissingValues";
	label = "cond_exp1.txt-weka.filters.unsupervised.attribute.ReplaceMissingValues";
	node_size = (130 55);
}

node CONDICION
{
	states = ("NODISPONIBLE" "OCUPADA" "DISPONIBLE" "DESOCUPADA" );
	position = (435 92);
	label = "CONDICION";
}
node CS_P17
{
	states = ("2" "1" );
	position = (626 31);
	label = "CS_P17";
}
node CS_P13_1
{
	states = ("3" "7" "2" "4" "6" "0" "9" "5" "1" "8" );
	position = (506 176);
	label = "CS_P13_1";
}
node SEX
{
	states = ("2" "1" );
	position = (435 8);
	label = "SEX";
}
potential ( CONDICION | CS_P17 SEX )
{
	data = (((	0.4801652892561983	0.3892561983471074	0.09008264462809917	0.04049586776859504	)
		(	0.07841328413284135	0.8108856088560886	0.03228782287822879	0.07841328413284135	))
		((	0.72140522875817	0.1331699346405229	0.13153594771241833	0.01388888888888889	)
		(	0.6364406779661017	0.23983050847457626	0.11440677966101695	0.009322033898305085	)));
}
potential ( CS_P17 | )
{
	data = (	0.48825789923142615	0.5117421007685738	);
}
potential ( CS_P13_1 | CS_P17 CONDICION )
{
	data = (((	0.3724035608308605	0.07863501483679525	0.21216617210682492	0.24777448071216618	0.02225519287833828	0.057863501483679525	0.001483679525222552	0.001483679525222552	0.001483679525222552	0.004451038575667656	)
		(	0.36156111929307805	0.08468335787923417	0.2128129602356406	0.29528718703976436	0.01251840942562592	0.025773195876288655	0.0036818851251840938	7.363770250368187E-4	7.363770250368187E-4	0.0022091310751104565	)
		(	0.21710526315789472	0.08552631578947369	0.24342105263157893	0.375	0.019736842105263157	0.03289473684210526	0.006578947368421051	0.006578947368421051	0.006578947368421051	0.006578947368421051	)
		(	0.23239436619718312	0.147887323943662	0.07746478873239437	0.35915492957746487	0.11971830985915494	0.03521126760563381	0.007042253521126762	0.007042253521126762	0.007042253521126762	0.007042253521126762	))
		((	0.3806333739342265	0.19062119366626065	0.034713763702801465	0.3781973203410475	0.009135200974421437	6.090133982947625E-4	6.090133982947625E-4	0.0030450669914738123	0.0018270401948842874	6.090133982947625E-4	)
		(	0.30176211453744495	0.2709251101321586	0.015418502202643172	0.381057268722467	0.015418502202643172	0.0022026431718061676	0.0022026431718061676	0.0022026431718061676	0.0022026431718061676	0.006607929515418502	)
		(	0.3190789473684211	0.22697368421052633	0.029605263157894735	0.40460526315789475	0.003289473684210526	0.003289473684210526	0.003289473684210526	0.003289473684210526	0.003289473684210526	0.003289473684210526	)
		(	0.08333333333333333	0.3611111111111111	0.027777777777777776	0.3055555555555556	0.08333333333333333	0.027777777777777776	0.027777777777777776	0.027777777777777776	0.027777777777777776	0.027777777777777776	)));
}
potential ( SEX | )
{
	data = (	0.5181468830059778	0.4818531169940222	);
}
