net
{
	name = "Datos_OcutxtwekafiltersunsupervisedattributeReplaceMissingValues";
	propagationenginegenerator1791944048146838126L = "edu.ucla.belief.approx.BeliefPropagationSettings@2069df4";
	label = "Datos_Ocu.txt-weka.filters.unsupervised.attribute.ReplaceMissingValues";
	node_size = (130.0 55.0);
}

node RAMA_EST1
{
	states = ("1" "3" "2" "4" );
	position = (-30 22);
	diagnosistype = "AUXILIARY";
	ismapvariable = "false";
	label = "Rama";
	DSLxEXTRA_DEFINITIONxDIAGNOSIS_TYPE = "AUXILIARY";
	excludepolicy = "include whole CPT";
}
node POS_OCU
{
	states = ("1" "3" "4" "2" );
	position = (-212 -65);
	diagnosistype = "AUXILIARY";
	ismapvariable = "false";
	label = "Posición";
	DSLxEXTRA_DEFINITIONxDIAGNOSIS_TYPE = "AUXILIARY";
	excludepolicy = "include whole CPT";
}
node EDA5C
{
	states = ("3" "2" "1" "4" "5" );
	position = (302 -244);
	diagnosistype = "AUXILIARY";
	ismapvariable = "false";
	label = "Edad";
	DSLxEXTRA_DEFINITIONxDIAGNOSIS_TYPE = "AUXILIARY";
	excludepolicy = "include whole CPT";
}
node EMP_PPAL
{
	states = ("2" "1" );
	position = (302 24);
	diagnosistype = "AUXILIARY";
	ismapvariable = "false";
	label = "Formal / Informal";
	DSLxEXTRA_DEFINITIONxDIAGNOSIS_TYPE = "AUXILIARY";
	excludepolicy = "include whole CPT";
}
node ING7C
{
	states = ("3" "1" "2" "6" "7" "4" "5" );
	position = (-212 180);
	diagnosistype = "AUXILIARY";
	ismapvariable = "false";
	label = "Ingreso";
	DSLxEXTRA_DEFINITIONxDIAGNOSIS_TYPE = "AUXILIARY";
	excludepolicy = "include whole CPT";
}
node SEG_SOC
{
	states = ("1" "2" );
	position = (-120 -244);
	diagnosistype = "AUXILIARY";
	ismapvariable = "false";
	label = "Seguridad Social";
	DSLxEXTRA_DEFINITIONxDIAGNOSIS_TYPE = "AUXILIARY";
	excludepolicy = "include whole CPT";
}
node CS_P17
{
	states = ("2" "1" );
	position = (671 -245);
	diagnosistype = "AUXILIARY";
	ismapvariable = "false";
	label = "¿Estudia?";
	DSLxEXTRA_DEFINITIONxDIAGNOSIS_TYPE = "AUXILIARY";
	excludepolicy = "include whole CPT";
}
node SUB_O
{
	states = ("0" "1" );
	position = (648 23);
	diagnosistype = "AUXILIARY";
	ismapvariable = "false";
	label = "Sub ocupado";
	DSLxEXTRA_DEFINITIONxDIAGNOSIS_TYPE = "AUXILIARY";
	excludepolicy = "include whole CPT";
}
node SEX
{
	states = ("1" "2" );
	position = (648 184);
	diagnosistype = "AUXILIARY";
	ismapvariable = "false";
	label = "Sexo";
	DSLxEXTRA_DEFINITIONxDIAGNOSIS_TYPE = "AUXILIARY";
	excludepolicy = "include whole CPT";
}
node CS_P13_1
{
	states = ("3" "4" "7" "6" "0" "2" "5" "9" "8" "1" );
	position = (302 -112);
	diagnosistype = "AUXILIARY";
	ismapvariable = "false";
	label = "Escolaridad";
	DSLxEXTRA_DEFINITIONxDIAGNOSIS_TYPE = "AUXILIARY";
	excludepolicy = "include whole CPT";
}
node T_TRA
{
	states = ("1" "2" );
	position = (647 -102);
	diagnosistype = "AUXILIARY";
	ismapvariable = "false";
	label = "Trabajos";
	DSLxEXTRA_DEFINITIONxDIAGNOSIS_TYPE = "AUXILIARY";
	excludepolicy = "include whole CPT";
}
node DUR_EST
{
	states = ("5" "4" "2" "1" "3" "6" );
	position = (208 183);
	diagnosistype = "AUXILIARY";
	ismapvariable = "false";
	label = "Jornada";
	DSLxEXTRA_DEFINITIONxDIAGNOSIS_TYPE = "AUXILIARY";
	excludepolicy = "include whole CPT";
}
potential ( RAMA_EST1 | ING7C SEG_SOC )
{
	data = (((	0.01187335092348285	0.7796833773087072	0.20712401055408974	0.0013192612137203168	)
		(	0.07958801498127341	0.5833333333333334	0.33614232209737827	9.363295880149813E-4	))
		((	0.05645161290322581	0.7661290322580646	0.16935483870967744	0.00806451612903226	)
		(	0.19264069264069264	0.665945165945166	0.13347763347763347	0.007936507936507936	))
		((	0.07234726688102894	0.7958199356913184	0.1302250803858521	0.001607717041800643	)
		(	0.1897179253867152	0.6392174704276615	0.16696997270245678	0.004094631483166515	))
		((	0.3	0.5	0.1	0.1	)
		(	0.439209726443769	0.46048632218844987	0.08966565349544073	0.010638297872340425	))
		((	0.01090342679127726	0.7928348909657322	0.19470404984423678	0.0015576323987538943	)
		(	0.1647727272727273	0.6193181818181819	0.21477272727272728	0.0011363636363636365	))
		((	0.007172131147540982	0.7735655737704916	0.21823770491803274	0.001024590163934426	)
		(	0.051666666666666666	0.6316666666666667	0.30833333333333335	0.008333333333333333	))
		((	0.008905852417302799	0.6221374045801527	0.3651399491094148	0.003816793893129771	)
		(	0.07323232323232323	0.7196969696969697	0.20454545454545456	0.0025252525252525255	)));
}
potential ( POS_OCU | SEG_SOC EMP_PPAL CS_P17 )
{
	data = ((((	0.9975622968580715	2.7085590465872155E-4	2.7085590465872155E-4	0.001895991332611051	)
		(	0.9842105263157894	0.005263157894736842	0.005263157894736842	0.005263157894736842	))
		((	0.05555555555555555	0.7222222222222222	0.16666666666666666	0.05555555555555555	)
		(	0.16666666666666669	0.16666666666666669	0.5000000000000001	0.16666666666666669	)))
		(((	0.0012048192771084338	0.4855421686746988	0.0012048192771084338	0.5120481927710844	)
		(	0.05555555555555555	0.5	0.05555555555555555	0.3888888888888889	))
		((	0.5110169491525424	0.39101694915254237	0.06423728813559322	0.033728813559322036	)
		(	0.5422535211267606	0.15258215962441316	0.2981220657276995	0.007042253521126761	))));
}
potential ( EDA5C | CS_P13_1 )
{
	data = ((	0.21054613935969868	0.5397363465160075	0.23615819209039549	0.010922787193973634	0.0026365348399246705	)
		(	0.15748469671675017	0.5125208681135226	0.318864774624374	0.009460211463550363	0.001669449081803005	)
		(	0.2772133526850509	0.5810353168843736	0.11465892597968069	0.026608611514271893	4.837929366231253E-4	)
		(	0.402247191011236	0.5101123595505619	0.05168539325842697	0.03370786516853933	0.0022471910112359557	)
		(	0.3984496124031007	0.29302325581395344	0.054263565891472854	0.24961240310077515	0.0046511627906976735	)
		(	0.4189909119398308	0.3907865872767158	0.09244750861798809	0.09620808523973676	0.0015669069257286117	)
		(	0.5942028985507247	0.33333333333333337	0.01449275362318841	0.04347826086956522	0.01449275362318841	)
		(	0.38461538461538464	0.3333333333333333	0.1282051282051282	0.07692307692307693	0.07692307692307693	)
		(	0.48066298342541436	0.4696132596685083	0.027624309392265192	0.016574585635359115	0.0055248618784530384	)
		(	0.5555555555555556	0.11111111111111109	0.11111111111111109	0.11111111111111109	0.11111111111111109	));
}
potential ( EMP_PPAL | CS_P13_1 CS_P17 )
{
	data = (((	0.37219551282051283	0.6278044871794872	)
		(	0.14556962025316456	0.8544303797468354	))
		((	0.5577164366373902	0.44228356336260977	)
		(	0.23267326732673269	0.7673267326732673	))
		((	0.7798708288482239	0.2201291711517761	)
		(	0.5144230769230769	0.4855769230769231	))
		((	0.6255813953488372	0.3744186046511628	)
		(	0.6428571428571429	0.35714285714285715	))
		((	0.12460567823343849	0.8753943217665615	)
		(	0.1	0.9	))
		((	0.21888818698673404	0.7811118130132659	)
		(	0.20833333333333334	0.7916666666666666	))
		((	0.9848484848484849	0.015151515151515152	)
		(	0.5	0.5	))
		((	0.4166666666666667	0.5833333333333334	)
		(	0.5	0.5	))
		((	0.8544303797468354	0.14556962025316456	)
		(	0.6818181818181818	0.3181818181818182	))
		((	0.16666666666666666	0.8333333333333334	)
		(	0.5	0.5	)));
}
potential ( ING7C | POS_OCU EMP_PPAL )
{
	data = (((	0.19483870967741934	0.03070967741935484	0.15870967741935485	2.5806451612903227E-4	0.16335483870967743	0.25109677419354837	0.20103225806451613	)
		(	0.2014764687788373	0.159643186711781	0.4352506920947401	3.0759766225776686E-4	0.10243002153183636	0.07659181790218395	0.024300215318363582	))
		((	0.1414868105515588	0.11270983213429256	0.21342925659472423	0.0023980815347721825	0.23741007194244604	0.13189448441247006	0.16067146282973624	)
		(	0.11929677689409796	0.3185433235663458	0.2540812055253245	0.0632063624947677	0.13017999162829638	0.0841356215989954	0.030556718292172456	))
		((	0.14285714285714288	0.14285714285714288	0.14285714285714288	0.14285714285714288	0.14285714285714288	0.14285714285714288	0.14285714285714288	)
		(	0.001941747572815534	0.001941747572815534	0.001941747572815534	0.9883495145631068	0.001941747572815534	0.001941747572815534	0.001941747572815534	))
		((	0.10609480812641084	0.0744920993227991	0.11060948081264109	0.006772009029345372	0.255079006772009	0.12866817155756208	0.3182844243792325	)
		(	0.1111111111111111	0.14009661835748793	0.20772946859903382	0.004830917874396135	0.1497584541062802	0.18840579710144928	0.19806763285024154	)));
}
potential ( SEG_SOC | EMP_PPAL EDA5C )
{
	data = (((	0.7571819425444597	0.24281805745554036	)
		(	0.8604559748427673	0.13954402515723272	)
		(	0.9748062015503876	0.025193798449612403	)
		(	0.3888888888888889	0.6111111111111112	)
		(	0.75	0.25	))
		((	0.004817987152034261	0.9951820128479657	)
		(	0.0017921146953405018	0.9982078853046595	)
		(	0.00234375	0.99765625	)
		(	0.007692307692307693	0.9923076923076923	)
		(	0.0625	0.9375	)));
}
potential ( CS_P17 | EDA5C )
{
	data = ((	0.98828125	0.01171875	)
		(	0.9735558889722431	0.02644411102775694	)
		(	0.7519509476031215	0.2480490523968785	)
		(	0.9948805460750854	0.005119453924914676	)
		(	0.9444444444444444	0.05555555555555555	));
}
potential ( SUB_O | DUR_EST SEX EMP_PPAL )
{
	data = ((((	0.9888888888888889	0.011111111111111112	)
		(	0.969079939668175	0.03092006033182504	))
		((	0.9756756756756757	0.024324324324324326	)
		(	0.9732142857142857	0.026785714285714284	)))
		(((	0.9776725304465493	0.022327469553450607	)
		(	0.9530551415797317	0.04694485842026826	))
		((	0.9952290076335878	0.004770992366412214	)
		(	0.9852150537634409	0.01478494623655914	)))
		(((	0.7916666666666666	0.20833333333333334	)
		(	0.625	0.375	))
		((	0.6538461538461539	0.34615384615384615	)
		(	0.868421052631579	0.13157894736842105	)))
		(((	0.9558823529411765	0.04411764705882353	)
		(	0.9196428571428571	0.08035714285714286	))
		((	0.9722222222222222	0.027777777777777776	)
		(	0.9821428571428571	0.017857142857142856	)))
		(((	0.8693693693693694	0.13063063063063063	)
		(	0.6646039603960396	0.3353960396039604	))
		((	0.9814814814814815	0.018518518518518517	)
		(	0.9410994764397905	0.058900523560209424	)))
		(((	0.8333333333333334	0.16666666666666666	)
		(	0.8125	0.1875	))
		((	0.875	0.125	)
		(	0.75	0.25	))));
}
potential ( SEX | RAMA_EST1 DUR_EST EMP_PPAL )
{
	data = ((((	0.98	0.02	)
		(	0.9825581395348837	0.01744186046511628	))
		((	0.9852941176470589	0.014705882352941176	)
		(	0.9671052631578947	0.03289473684210526	))
		((	0.7	0.3	)
		(	0.9021739130434783	0.09782608695652174	))
		((	0.875	0.125	)
		(	0.9423076923076923	0.057692307692307696	))
		((	0.9074074074074074	0.09259259259259259	)
		(	0.9107142857142857	0.08928571428571429	))
		((	0.5	0.5	)
		(	0.5	0.5	)))
		(((	0.7072538860103627	0.2927461139896373	)
		(	0.5873634945397815	0.4126365054602184	))
		((	0.507502679528403	0.492497320471597	)
		(	0.4126297577854671	0.5873702422145328	))
		((	0.34375	0.65625	)
		(	0.18899521531100477	0.8110047846889952	))
		((	0.6081081081081081	0.3918918918918919	)
		(	0.44047619047619047	0.5595238095238095	))
		((	0.3713592233009709	0.6286407766990292	)
		(	0.28523489932885904	0.714765100671141	))
		((	0.6875	0.3125	)
		(	0.65	0.35	)))
		(((	0.907185628742515	0.09281437125748503	)
		(	0.9372093023255814	0.06279069767441861	))
		((	0.7820945945945946	0.2179054054054054	)
		(	0.9034334763948498	0.09656652360515021	))
		((	0.7	0.3	)
		(	0.3490566037735849	0.6509433962264151	))
		((	0.7083333333333334	0.2916666666666667	)
		(	0.7941176470588235	0.20588235294117646	))
		((	0.75	0.25	)
		(	0.6942446043165468	0.3057553956834532	))
		((	0.7	0.3	)
		(	0.375	0.625	)))
		(((	0.5	0.5	)
		(	0.5	0.5	))
		((	0.75	0.25	)
		(	0.4166666666666667	0.5833333333333334	))
		((	0.5	0.5	)
		(	0.5	0.5	))
		((	0.5	0.5	)
		(	0.5	0.5	))
		((	0.5	0.5	)
		(	0.4166666666666667	0.5833333333333334	))
		((	0.5	0.5	)
		(	0.5	0.5	))));
}
potential ( CS_P13_1 | )
{
	data = (	0.23973593778260086	0.1621450533550371	0.18656176523783688	0.03988062940857299	0.057967082655091345	0.2882076324832701	0.0058780973051184675	0.003165129318140713	0.01600651112316875	4.52161331162959E-4	);
}
potential ( T_TRA | RAMA_EST1 EMP_PPAL )
{
	data = (((	0.8736263736263736	0.12637362637362637	)
		(	0.7863321799307958	0.21366782006920415	))
		((	0.9568771138669673	0.043122886133032695	)
		(	0.950312174817898	0.04968782518210198	))
		((	0.9706477732793523	0.029352226720647773	)
		(	0.9535060975609756	0.04649390243902439	))
		((	0.75	0.25	)
		(	0.9	0.1	)));
}
potential ( DUR_EST | ING7C SEG_SOC )
{
	data = (((	0.36184210526315796	0.5592105263157896	0.003947368421052633	0.01973684210526316	0.05131578947368421	0.003947368421052633	)
		(	0.45327102803738323	0.36915887850467294	0.015887850467289723	0.01962616822429907	0.1355140186915888	0.006542056074766356	))
		((	0.1984126984126984	0.5634920634920636	0.03968253968253969	0.023809523809523808	0.16666666666666669	0.007936507936507938	)
		(	0.1707492795389049	0.20965417867435157	0.2413544668587896	0.030979827089337175	0.3465417867435158	7.204610951008645E-4	))
		((	0.28365384615384615	0.6201923076923077	0.004807692307692308	0.02403846153846154	0.06570512820512821	0.0016025641025641025	)
		(	0.3340909090909091	0.3477272727272727	0.05590909090909091	0.020454545454545454	0.23954545454545453	0.0022727272727272726	))
		((	0.08333333333333333	0.25	0.08333333333333333	0.08333333333333333	0.4166666666666667	0.08333333333333333	)
		(	0.13484848484848483	0.3045454545454545	0.153030303030303	0.04999999999999999	0.356060606060606	0.0015151515151515147	))
		((	0.2065217391304348	0.6630434782608696	0.007763975155279504	0.013975155279503108	0.09161490683229816	0.01708074534161491	)
		(	0.30498866213151926	0.40476190476190477	0.046485260770975055	0.02834467120181406	0.1961451247165533	0.01927437641723356	))
		((	0.2852760736196319	0.5184049079754601	0.017382413087934562	0.03169734151329243	0.14621676891615543	0.0010224948875255625	)
		(	0.473421926910299	0.3272425249169435	0.03156146179401993	0.02159468438538206	0.14119601328903655	0.0049833887043189366	))
		((	0.315989847715736	0.5723350253807107	0.0012690355329949238	0.011421319796954314	0.0901015228426396	0.008883248730964468	)
		(	0.48492462311557794	0.35427135678391963	0.007537688442211056	0.03768844221105528	0.11306532663316585	0.0025125628140703522	)));
}
